15/11/21 03:07:10 WARN LoadSnappy: Snappy native library not loaded
Summary Stats                                                                   
Precision = 0.87680928363
Recall = 0.87680928363
F1 Score = 0.87680928363
Class 0.0 precision = 0.997974880813                                            
Class 0.0 recall = 0.878350280624
Class 0.0 F1 Measure = 0.934349263798
Class 1.0 precision = 0.00973769095003
Class 1.0 recall = 0.358744394619
Class 1.0 F1 Measure = 0.018960715767
Class 2.0 precision = 0.0106238994077
Class 2.0 recall = 0.415717539863
Class 2.0 F1 Measure = 0.0207183300458
Weighted recall = 0.87680928363
Weighted precision = 0.994816127773
Weighted F(1) Score = 0.93142534731
Weighted F(0.5) Score = 0.968446237187
Weighted false positive rate = 0.553953829002
Learned classification tree model:
DecisionTreeModel classifier of depth 15 with 15981 nodes
  If (feature 1 in {199.0,202.0,207.0,208.0,214.0,215.0,216.0,220.0,222.0,223.0,224.0,225.0,226.0,227.0,228.0,230.0,231.0,233.0,234.0,235.0,236.0,237.0,238.0,195.0,182.0,45.0,181.0,205.0,62.0,194.0,210.0,212.0,160.0,149.0,109.0,154.0,200.0,77.0,119.0,145.0,150.0,164.0,65.0,107.0,21.0,162.0,128.0,59.0,85.0,158.0,176.0,111.0,139.0,143.0,179.0,102.0,152.0,204.0,187.0,148.0,60.0,122.0,168.0,93.0,161.0,66.0,70.0,101.0,206.0,184.0,10.0,61.0,142.0,163.0,35.0,126.0,189.0,50.0,136.0,72.0,127.0,31.0,165.0,112.0,6.0,133.0,47.0,123.0,96.0,170.0,106.0,110.0,41.0,99.0,43.0,52.0})
   If (feature 1 in {199.0,202.0,207.0,208.0,214.0,215.0,216.0,220.0,222.0,223.0,224.0,225.0,226.0,227.0,228.0,230.0,231.0,233.0,234.0,235.0,236.0,237.0,238.0,195.0,182.0,45.0,181.0,205.0,62.0,194.0,210.0,212.0,160.0,149.0,109.0,154.0,200.0,77.0,119.0,145.0,150.0,164.0,65.0,107.0,21.0,162.0,128.0,59.0,85.0,158.0,176.0,111.0,139.0,143.0,179.0,102.0})
    If (feature 9 <= 5.835933685302734)
     If (feature 1 in {181.0,199.0,202.0,207.0,208.0,210.0,212.0,214.0,215.0,216.0,220.0,222.0,223.0,224.0,225.0,226.0,227.0,228.0,230.0,233.0,234.0,238.0,158.0,194.0,182.0,45.0,200.0,164.0,160.0,62.0,149.0,195.0})
      If (feature 9 <= 0.9523809552192688)
       If (feature 1 in {149.0,194.0,199.0,200.0,202.0,207.0,208.0,210.0,216.0,225.0,230.0,182.0,45.0})
        If (feature 8 <= 7.0)
         If (feature 6 <= 4.0)
          If (feature 9 <= 0.7352941036224365)
           If (feature 1 in {149.0,182.0,194.0,202.0,210.0,216.0,225.0})
            Predict: 0.0
           Else (feature 1 not in {149.0,182.0,194.0,202.0,210.0,216.0,225.0})
            If (feature 6 <= 3.0)
             If (feature 0 in {0.0})
              Predict: 0.0
             Else (feature 0 not in {0.0})
              If (feature 6 <= 1.0)
               Predict: 0.0
              Else (feature 6 > 1.0)
               If (feature 6 <= 2.0)
                If (feature 9 <= 0.0)
                 Predict: 0.0
                Else (feature 9 > 0.0)
                 Predict: 0.0
               Else (feature 6 > 2.0)
                Predict: 0.0
            Else (feature 6 > 3.0)
             If (feature 0 in {0.0})
              Predict: 0.0
             Else (feature 0 not in {0.0})
              If (feature 9 <= 0.0)
               Predict: 0.0
              Else (feature 9 > 0.0)
               Predict: 0.0
          Else (feature 9 > 0.7352941036224365)
           If (feature 9 <= 0.8474576473236084)
            Predict: 1.0
           Else (feature 9 > 0.8474576473236084)
            Predict: 0.0
         Else (feature 6 > 4.0)
          Predict: 0.0
        Else (feature 8 > 7.0)
         If (feature 6 <= 8.0)
          If (feature 1 in {216.0,225.0,45.0})
           If (feature 9 <= 0.0)
            If (feature 0 in {0.0})
             Predict: 0.0
            Else (feature 0 not in {0.0})
             Predict: 0.0
           Else (feature 9 > 0.0)
            Predict: 0.0
          Else (feature 1 not in {216.0,225.0,45.0})
           If (feature 7 <= 0.0)
            Predict: 0.0
           Else (feature 7 > 0.0)
            Predict: 0.0
         Else (feature 6 > 8.0)
          If (feature 9 <= 0.5970149040222168)
           If (feature 6 <= 12.0)
            If (feature 0 in {0.0})
             If (feature 1 in {149.0,182.0})
              Predict: 0.0
             Else (feature 1 not in {149.0,182.0})
              If (feature 9 <= 0.0)
               Predict: 0.0
              Else (feature 9 > 0.0)
               Predict: 0.0
            Else (feature 0 not in {0.0})
             If (feature 1 in {149.0,182.0,194.0})
              Predict: 0.0
             Else (feature 1 not in {149.0,182.0,194.0})
              If (feature 9 <= 0.0)
               If (feature 6 <= 10.0)
                Predict: 0.0
               Else (feature 6 > 10.0)
                Predict: 0.0
              Else (feature 9 > 0.0)
               Predict: 0.0
           Else (feature 6 > 12.0)
            If (feature 6 <= 16.0)
             Predict: 0.0
            Else (feature 6 > 16.0)
             Predict: 0.0
          Else (feature 9 > 0.5970149040222168)
           If (feature 1 in {182.0,200.0})
            Predict: 0.0
           Else (feature 1 not in {182.0,200.0})
            If (feature 9 <= 0.8474576473236084)
             If (feature 0 in {0.0})
              Predict: 0.0
             Else (feature 0 not in {0.0})
              If (feature 9 <= 0.7352941036224365)
               Predict: 0.0
              Else (feature 9 > 0.7352941036224365)
               Predict: 1.0
            Else (feature 9 > 0.8474576473236084)
             Predict: 0.0
       Else (feature 1 not in {149.0,194.0,199.0,200.0,202.0,207.0,208.0,210.0,216.0,225.0,230.0,182.0,45.0})
        If (feature 8 <= 8.0)
         If (feature 6 <= 5.0)
          If (feature 1 in {160.0,164.0})
           Predict: 0.0
          Else (feature 1 not in {160.0,164.0})
           If (feature 9 <= 0.8474576473236084)
            If (feature 9 <= 0.0)
             If (feature 6 <= 2.0)
              If (feature 0 in {0.0})
               Predict: 0.0
              Else (feature 0 not in {0.0})
               If (feature 1 in {158.0})
                Predict: 0.0
               Else (feature 1 not in {158.0})
                If (feature 8 <= 1.0)
                 Predict: 0.0
                Else (feature 8 > 1.0)
                 Predict: 0.0
             Else (feature 6 > 2.0)
              If (feature 1 in {62.0})
               If (feature 0 in {0.0})
                Predict: 0.0
               Else (feature 0 not in {0.0})
                If (feature 6 <= 4.0)
                 Predict: 0.0
                Else (feature 6 > 4.0)
                 Predict: 0.0
              Else (feature 1 not in {62.0})
               If (feature 0 in {0.0})
                Predict: 2.0
               Else (feature 0 not in {0.0})
                Predict: 0.0
            Else (feature 9 > 0.0)
             If (feature 6 <= 2.0)
              If (feature 0 in {0.0})
               Predict: 0.0
              Else (feature 0 not in {0.0})
               If (feature 9 <= 0.7352941036224365)
                If (feature 6 <= 1.0)
                 Predict: 0.0
                Else (feature 6 > 1.0)
                 Predict: 0.0
               Else (feature 9 > 0.7352941036224365)
                Predict: 0.0
             Else (feature 6 > 2.0)
              Predict: 0.0
           Else (feature 9 > 0.8474576473236084)
            If (feature 6 <= 1.0)
             Predict: 2.0
            Else (feature 6 > 1.0)
             If (feature 6 <= 2.0)
              If (feature 0 in {0.0})
               Predict: 0.0
              Else (feature 0 not in {0.0})
               Predict: 1.0
             Else (feature 6 > 2.0)
              Predict: 0.0
         Else (feature 6 > 5.0)
          If (feature 6 <= 6.0)
           If (feature 9 <= 0.0)
            If (feature 1 in {158.0,160.0,164.0})
             Predict: 0.0
            Else (feature 1 not in {158.0,160.0,164.0})
             If (feature 0 in {0.0})
              Predict: 0.0
             Else (feature 0 not in {0.0})
              Predict: 0.0
           Else (feature 9 > 0.0)
            Predict: 0.0
          Else (feature 6 > 6.0)
           Predict: 0.0
        Else (feature 8 > 8.0)
         If (feature 1 in {158.0,62.0})
          If (feature 9 <= 0.5970149040222168)
           If (feature 9 <= 0.0)
            If (feature 1 in {158.0})
             Predict: 0.0
            Else (feature 1 not in {158.0})
             If (feature 6 <= 10.0)
              Predict: 0.0
             Else (feature 6 > 10.0)
              Predict: 0.0
           Else (feature 9 > 0.0)
            Predict: 0.0
          Else (feature 9 > 0.5970149040222168)
           If (feature 7 <= 1.0)
            If (feature 6 <= 14.0)
             If (feature 9 <= 0.7352941036224365)
              Predict: 0.0
             Else (feature 9 > 0.7352941036224365)
              Predict: 0.0
            Else (feature 6 > 14.0)
             Predict: 2.0
           Else (feature 7 > 1.0)
            Predict: 0.0
         Else (feature 1 not in {158.0,62.0})
          If (feature 7 <= 0.0)
           If (feature 4 in {1.0})
            Predict: 0.0
           Else (feature 4 not in {1.0})
            Predict: 2.0
          Else (feature 7 > 0.0)
           Predict: 0.0
      Else (feature 9 > 0.9523809552192688)
       If (feature 0 in {0.0})
        If (feature 9 <= 1.5033849477767944)
         If (feature 6 <= 2.0)
          If (feature 5 <= 6.0)
           If (feature 7 <= 0.0)
            Predict: 0.0
           Else (feature 7 > 0.0)
            Predict: 2.0
          Else (feature 5 > 6.0)
           Predict: 1.0
         Else (feature 6 > 2.0)
          If (feature 1 in {45.0,62.0,160.0,182.0,202.0})
           Predict: 0.0
          Else (feature 1 not in {45.0,62.0,160.0,182.0,202.0})
           If (feature 9 <= 1.1173183917999268)
            Predict: 2.0
           Else (feature 9 > 1.1173183917999268)
            Predict: 0.0
        Else (feature 9 > 1.5033849477767944)
         If (feature 9 <= 4.6052632331848145)
          If (feature 6 <= 3.0)
           If (feature 9 <= 3.305706024169922)
            Predict: 0.0
           Else (feature 9 > 3.305706024169922)
            If (feature 9 <= 3.3229894638061523)
             If (feature 8 <= 1.0)
              Predict: 0.0
             Else (feature 8 > 1.0)
              Predict: 0.0
            Else (feature 9 > 3.3229894638061523)
             If (feature 9 <= 3.8739330768585205)
              If (feature 9 <= 3.8588755130767822)
               If (feature 9 <= 3.479278087615967)
                Predict: 0.0
               Else (feature 9 > 3.479278087615967)
                If (feature 9 <= 3.4946236610412598)
                 Predict: 1.0
                Else (feature 9 > 3.4946236610412598)
                 Predict: 0.0
              Else (feature 9 > 3.8588755130767822)
               If (feature 1 in {62.0})
                Predict: 0.0
               Else (feature 1 not in {62.0})
                Predict: 0.0
             Else (feature 9 > 3.8739330768585205)
              If (feature 9 <= 4.410585403442383)
               Predict: 0.0
              Else (feature 9 > 4.410585403442383)
               If (feature 9 <= 4.42259407043457)
                If (feature 1 in {45.0})
                 Predict: 0.0
                Else (feature 1 not in {45.0})
                 Predict: 0.0
               Else (feature 9 > 4.42259407043457)
                Predict: 0.0
          Else (feature 6 > 3.0)
           If (feature 1 in {158.0,164.0,181.0,182.0,194.0,195.0,200.0,202.0,208.0,215.0,220.0,230.0,233.0,62.0,45.0})
            If (feature 8 <= 5.0)
             If (feature 8 <= 4.0)
              If (feature 7 <= 0.0)
               If (feature 1 in {62.0,158.0,164.0,181.0,194.0,195.0,233.0})
                Predict: 0.0
               Else (feature 1 not in {62.0,158.0,164.0,181.0,194.0,195.0,233.0})
                If (feature 6 <= 8.0)
                 Predict: 0.0
                Else (feature 6 > 8.0)
                 Predict: 0.0
              Else (feature 7 > 0.0)
               If (feature 9 <= 4.156299114227295)
                If (feature 9 <= 3.6363637447357178)
                 Predict: 0.0
                Else (feature 9 > 3.6363637447357178)
                 Predict: 0.0
               Else (feature 9 > 4.156299114227295)
                If (feature 1 in {45.0})
                 Predict: 0.0
                Else (feature 1 not in {45.0})
                 Predict: 2.0
             Else (feature 8 > 4.0)
              If (feature 9 <= 4.210526466369629)
               If (feature 1 in {62.0,158.0})
                Predict: 0.0
               Else (feature 1 not in {62.0,158.0})
                If (feature 9 <= 3.373105049133301)
                 Predict: 0.0
                Else (feature 9 > 3.373105049133301)
                 Predict: 0.0
              Else (feature 9 > 4.210526466369629)
               If (feature 9 <= 4.292051792144775)
                If (feature 9 <= 4.225253105163574)
                 Predict: 2.0
                Else (feature 9 > 4.225253105163574)
                 Predict: 0.0
               Else (feature 9 > 4.292051792144775)
                If (feature 9 <= 4.397253513336182)
                 Predict: 0.0
                Else (feature 9 > 4.397253513336182)
                 Predict: 0.0
            Else (feature 8 > 5.0)
             If (feature 9 <= 2.654867172241211)
              If (feature 9 <= 2.462780714035034)
               Predict: 0.0
              Else (feature 9 > 2.462780714035034)
               If (feature 6 <= 13.0)
                Predict: 0.0
               Else (feature 6 > 13.0)
                If (feature 7 <= 2.0)
                 Predict: 2.0
                Else (feature 7 > 2.0)
                 Predict: 0.0
             Else (feature 9 > 2.654867172241211)
              If (feature 7 <= 0.0)
               If (feature 8 <= 30.0)
                If (feature 9 <= 3.986711025238037)
                 Predict: 0.0
                Else (feature 9 > 3.986711025238037)
                 Predict: 0.0
               Else (feature 8 > 30.0)
                If (feature 1 in {45.0})
                 Predict: 2.0
                Else (feature 1 not in {45.0})
                 Predict: 0.0
              Else (feature 7 > 0.0)
               If (feature 6 <= 110.0)
                Predict: 0.0
               Else (feature 6 > 110.0)
                If (feature 6 <= 114.0)
                 Predict: 1.0
                Else (feature 6 > 114.0)
                 Predict: 0.0
           Else (feature 1 not in {158.0,164.0,181.0,182.0,194.0,195.0,200.0,202.0,208.0,215.0,220.0,230.0,233.0,62.0,45.0})
            If (feature 6 <= 24.0)
             If (feature 1 in {149.0})
              Predict: 0.0
             Else (feature 1 not in {149.0})
              If (feature 9 <= 3.738293409347534)
               Predict: 0.0
              Else (feature 9 > 3.738293409347534)
               If (feature 9 <= 3.797468423843384)
                Predict: 2.0
               Else (feature 9 > 3.797468423843384)
                Predict: 0.0
            Else (feature 6 > 24.0)
             If (feature 1 in {149.0})
              Predict: 2.0
             Else (feature 1 not in {149.0})
              Predict: 0.0
         Else (feature 9 > 4.6052632331848145)
          If (feature 8 <= 6.0)
           If (feature 2 in {28.0,68.0,77.0,115.0,121.0,123.0,133.0,64.0,49.0})
            If (feature 9 <= 4.761904716491699)
             If (feature 9 <= 4.738400936126709)
              If (feature 9 <= 4.667410373687744)
               If (feature 9 <= 4.652645111083984)
                Predict: 0.0
               Else (feature 9 > 4.652645111083984)
                If (feature 1 in {62.0,160.0,164.0})
                 Predict: 0.0
                Else (feature 1 not in {62.0,160.0,164.0})
                 Predict: 0.0
              Else (feature 9 > 4.667410373687744)
               Predict: 0.0
             Else (feature 9 > 4.738400936126709)
              If (feature 6 <= 1.0)
               Predict: 2.0
              Else (feature 6 > 1.0)
               If (feature 9 <= 4.7515482902526855)
                Predict: 0.0
               Else (feature 9 > 4.7515482902526855)
                Predict: 0.0
            Else (feature 9 > 4.761904716491699)
             If (feature 9 <= 5.510204315185547)
              If (feature 9 <= 5.099228858947754)
               If (feature 9 <= 5.088425159454346)
                If (feature 8 <= 2.0)
                 Predict: 0.0
                Else (feature 8 > 2.0)
                 Predict: 0.0
               Else (feature 9 > 5.088425159454346)
                If (feature 6 <= 1.0)
                 Predict: 0.0
                Else (feature 6 > 1.0)
                 Predict: 0.0
              Else (feature 9 > 5.099228858947754)
               Predict: 0.0
             Else (feature 9 > 5.510204315185547)
              If (feature 9 <= 5.521472454071045)
               If (feature 1 in {158.0})
                Predict: 0.0
               Else (feature 1 not in {158.0})
                If (feature 6 <= 2.0)
                 Predict: 0.0
                Else (feature 6 > 2.0)
                 Predict: 0.0
              Else (feature 9 > 5.521472454071045)
               If (feature 9 <= 5.614862442016602)
                If (feature 9 <= 5.602923393249512)
                 Predict: 0.0
                Else (feature 9 > 5.602923393249512)
                 Predict: 0.0
               Else (feature 9 > 5.614862442016602)
                Predict: 0.0
           Else (feature 2 not in {28.0,68.0,77.0,115.0,121.0,123.0,133.0,64.0,49.0})
            If (feature 1 in {212.0})
             Predict: 0.0
            Else (feature 1 not in {212.0})
             Predict: 1.0
          Else (feature 8 > 6.0)
           If (feature 7 <= 0.0)
            If (feature 9 <= 4.8132781982421875)
             If (feature 9 <= 4.667410373687744)
              Predict: 0.0
             Else (feature 9 > 4.667410373687744)
              If (feature 9 <= 4.6798553466796875)
               Predict: 1.0
              Else (feature 9 > 4.6798553466796875)
               If (feature 9 <= 4.800000190734863)
                If (feature 9 <= 4.705663681030273)
                 Predict: 2.0
                Else (feature 9 > 4.705663681030273)
                 Predict: 0.0
               Else (feature 9 > 4.800000190734863)
                Predict: 1.0
            Else (feature 9 > 4.8132781982421875)
             If (feature 1 in {149.0,164.0,181.0,195.0,210.0,62.0,45.0})
              If (feature 9 <= 5.379587650299072)
               If (feature 9 <= 4.883720874786377)
                If (feature 9 <= 4.850578784942627)
                 Predict: 0.0
                Else (feature 9 > 4.850578784942627)
                 Predict: 0.0
               Else (feature 9 > 4.883720874786377)
                Predict: 0.0
              Else (feature 9 > 5.379587650299072)
               If (feature 9 <= 5.405149459838867)
                Predict: 1.0
               Else (feature 9 > 5.405149459838867)
                If (feature 6 <= 7.0)
                 Predict: 0.0
                Else (feature 6 > 7.0)
                 Predict: 0.0
             Else (feature 1 not in {149.0,164.0,181.0,195.0,210.0,62.0,45.0})
              If (feature 6 <= 8.0)
               Predict: 2.0
              Else (feature 6 > 8.0)
               Predict: 0.0
           Else (feature 7 > 0.0)
            If (feature 7 <= 5.0)
             If (feature 6 <= 54.0)
              If (feature 1 in {62.0,149.0,158.0,160.0,194.0,195.0,227.0})
               Predict: 0.0
              Else (feature 1 not in {62.0,149.0,158.0,160.0,194.0,195.0,227.0})
               If (feature 9 <= 4.955516338348389)
                Predict: 0.0
               Else (feature 9 > 4.955516338348389)
                If (feature 9 <= 5.1094889640808105)
                 Predict: 1.0
                Else (feature 9 > 5.1094889640808105)
                 Predict: 0.0
             Else (feature 6 > 54.0)
              Predict: 2.0
            Else (feature 7 > 5.0)
             Predict: 0.0
       Else (feature 0 not in {0.0})
        If (feature 1 in {158.0,181.0,182.0,194.0,199.0,202.0,207.0,208.0,210.0,212.0,214.0,215.0,216.0,220.0,222.0,223.0,224.0,227.0,228.0,234.0,45.0,164.0,160.0,149.0,200.0})
         If (feature 9 <= 5.788342475891113)
          If (feature 1 in {158.0,181.0,182.0,194.0,199.0,202.0,207.0,208.0,210.0,212.0,214.0,215.0,216.0,220.0,222.0,223.0,224.0,227.0,228.0,234.0})
           Predict: 0.0
          Else (feature 1 not in {158.0,181.0,182.0,194.0,199.0,202.0,207.0,208.0,210.0,212.0,214.0,215.0,216.0,220.0,222.0,223.0,224.0,227.0,228.0,234.0})
           If (feature 6 <= 5.0)
            If (feature 9 <= 4.943502902984619)
             If (feature 8 <= 4.0)
              If (feature 1 in {200.0,149.0,45.0})
               If (feature 9 <= 2.545454502105713)
                If (feature 9 <= 1.6216216087341309)
                 Predict: 0.0
                Else (feature 9 > 1.6216216087341309)
                 Predict: 0.0
               Else (feature 9 > 2.545454502105713)
                If (feature 9 <= 2.654867172241211)
                 Predict: 0.0
                Else (feature 9 > 2.654867172241211)
                 Predict: 0.0
              Else (feature 1 not in {200.0,149.0,45.0})
               If (feature 9 <= 1.7234625816345215)
                If (feature 9 <= 1.5033849477767944)
                 Predict: 0.0
                Else (feature 9 > 1.5033849477767944)
                 Predict: 2.0
               Else (feature 9 > 1.7234625816345215)
                If (feature 9 <= 3.373105049133301)
                 Predict: 0.0
                Else (feature 9 > 3.373105049133301)
                 Predict: 0.0
             Else (feature 8 > 4.0)
              If (feature 9 <= 3.797468423843384)
               If (feature 9 <= 3.721376895904541)
                If (feature 9 <= 3.3391916751861572)
                 Predict: 0.0
                Else (feature 9 > 3.3391916751861572)
                 Predict: 0.0
               Else (feature 9 > 3.721376895904541)
                If (feature 9 <= 3.738293409347534)
                 Predict: 0.0
                Else (feature 9 > 3.738293409347534)
                 Predict: 2.0
              Else (feature 9 > 3.797468423843384)
               If (feature 1 in {160.0,45.0})
                If (feature 9 <= 4.520396709442139)
                 Predict: 0.0
                Else (feature 9 > 4.520396709442139)
                 Predict: 0.0
               Else (feature 1 not in {160.0,45.0})
                If (feature 9 <= 3.8460476398468018)
                 Predict: 0.0
                Else (feature 9 > 3.8460476398468018)
                 Predict: 0.0
            Else (feature 9 > 4.943502902984619)
             If (feature 9 <= 4.955516338348389)
              If (feature 6 <= 2.0)
               Predict: 2.0
              Else (feature 6 > 2.0)
               Predict: 0.0
             Else (feature 9 > 4.955516338348389)
              If (feature 9 <= 5.04022741317749)
               If (feature 1 in {149.0})
                Predict: 1.0
               Else (feature 1 not in {149.0})
                If (feature 9 <= 4.979811668395996)
                 Predict: 0.0
                Else (feature 9 > 4.979811668395996)
                 Predict: 0.0
              Else (feature 9 > 5.04022741317749)
               If (feature 9 <= 5.179028034210205)
                If (feature 9 <= 5.167958736419678)
                 Predict: 0.0
                Else (feature 9 > 5.167958736419678)
                 Predict: 0.0
               Else (feature 9 > 5.179028034210205)
                If (feature 7 <= 0.0)
                 Predict: 0.0
                Else (feature 7 > 0.0)
                 Predict: 0.0
           Else (feature 6 > 5.0)
            If (feature 9 <= 4.238615989685059)
             If (feature 9 <= 3.252032518386841)
              If (feature 8 <= 9.0)
               Predict: 0.0
              Else (feature 8 > 9.0)
               If (feature 4 in {0.0})
                If (feature 9 <= 2.8408613204956055)
                 Predict: 0.0
                Else (feature 9 > 2.8408613204956055)
                 Predict: 0.0
               Else (feature 4 not in {0.0})
                If (feature 7 <= 2.0)
                 Predict: 0.0
                Else (feature 7 > 2.0)
                 Predict: 0.0
             Else (feature 9 > 3.252032518386841)
              If (feature 1 in {164.0,45.0,149.0})
               If (feature 8 <= 38.0)
                If (feature 6 <= 46.0)
                 Predict: 0.0
                Else (feature 6 > 46.0)
                 Predict: 2.0
               Else (feature 8 > 38.0)
                Predict: 0.0
              Else (feature 1 not in {164.0,45.0,149.0})
               If (feature 6 <= 8.0)
                Predict: 1.0
               Else (feature 6 > 8.0)
                If (feature 9 <= 3.900498151779175)
                 Predict: 0.0
                Else (feature 9 > 3.900498151779175)
                 Predict: 1.0
            Else (feature 9 > 4.238615989685059)
             If (feature 8 <= 6.0)
              If (feature 1 in {160.0,45.0})
               If (feature 9 <= 5.510204315185547)
                If (feature 9 <= 4.955516338348389)
                 Predict: 0.0
                Else (feature 9 > 4.955516338348389)
                 Predict: 0.0
               Else (feature 9 > 5.510204315185547)
                If (feature 9 <= 5.521472454071045)
                 Predict: 0.0
                Else (feature 9 > 5.521472454071045)
                 Predict: 0.0
              Else (feature 1 not in {160.0,45.0})
               If (feature 9 <= 4.788975715637207)
                If (feature 9 <= 4.5315728187561035)
                 Predict: 0.0
                Else (feature 9 > 4.5315728187561035)
                 Predict: 1.0
               Else (feature 9 > 4.788975715637207)
                Predict: 0.0
             Else (feature 8 > 6.0)
              If (feature 9 <= 5.510204315185547)
               If (feature 9 <= 4.930673599243164)
                Predict: 0.0
               Else (feature 9 > 4.930673599243164)
                If (feature 9 <= 4.943502902984619)
                 Predict: 0.0
                Else (feature 9 > 4.943502902984619)
                 Predict: 0.0
              Else (feature 9 > 5.510204315185547)
               If (feature 9 <= 5.521472454071045)
                If (feature 6 <= 8.0)
                 Predict: 1.0
                Else (feature 6 > 8.0)
                 Predict: 0.0
               Else (feature 9 > 5.521472454071045)
                If (feature 6 <= 84.0)
                 Predict: 0.0
                Else (feature 6 > 84.0)
                 Predict: 0.0
         Else (feature 9 > 5.788342475891113)
          If (feature 9 <= 5.798941135406494)
           If (feature 6 <= 2.0)
            Predict: 2.0
           Else (feature 6 > 2.0)
            If (feature 7 <= 1.0)
             If (feature 6 <= 15.0)
              Predict: 0.0
             Else (feature 6 > 15.0)
              Predict: 1.0
            Else (feature 7 > 1.0)
             Predict: 0.0
          Else (feature 9 > 5.798941135406494)
           Predict: 0.0
        Else (feature 1 not in {158.0,181.0,182.0,194.0,199.0,202.0,207.0,208.0,210.0,212.0,214.0,215.0,216.0,220.0,222.0,223.0,224.0,227.0,228.0,234.0,45.0,164.0,160.0,149.0,200.0})
         If (feature 9 <= 4.043071746826172)
          If (feature 9 <= 3.4629361629486084)
           If (feature 9 <= 2.5706114768981934)
            If (feature 9 <= 2.545454502105713)
             If (feature 9 <= 2.0512821674346924)
              If (feature 8 <= 4.0)
               If (feature 6 <= 1.0)
                If (feature 9 <= 1.937185287475586)
                 Predict: 0.0
                Else (feature 9 > 1.937185287475586)
                 Predict: 1.0
               Else (feature 6 > 1.0)
                Predict: 0.0
              Else (feature 8 > 4.0)
               If (feature 9 <= 1.769911527633667)
                If (feature 9 <= 1.7234625816345215)
                 Predict: 0.0
                Else (feature 9 > 1.7234625816345215)
                 Predict: 0.0
               Else (feature 9 > 1.769911527633667)
                Predict: 0.0
             Else (feature 9 > 2.0512821674346924)
              If (feature 9 <= 2.0833332538604736)
               If (feature 7 <= 0.0)
                If (feature 6 <= 1.0)
                 Predict: 2.0
                Else (feature 6 > 1.0)
                 Predict: 2.0
               Else (feature 7 > 0.0)
                Predict: 0.0
              Else (feature 9 > 2.0833332538604736)
               If (feature 7 <= 4.0)
                If (feature 6 <= 2.0)
                 Predict: 0.0
                Else (feature 6 > 2.0)
                 Predict: 0.0
               Else (feature 7 > 4.0)
                If (feature 6 <= 36.0)
                 Predict: 1.0
                Else (feature 6 > 36.0)
                 Predict: 0.0
            Else (feature 9 > 2.545454502105713)
             If (feature 7 <= 0.0)
              Predict: 0.0
             Else (feature 7 > 0.0)
              Predict: 2.0
           Else (feature 9 > 2.5706114768981934)
            If (feature 1 in {62.0})
             If (feature 6 <= 9.0)
              If (feature 9 <= 3.305706024169922)
               Predict: 0.0
              Else (feature 9 > 3.305706024169922)
               If (feature 7 <= 0.0)
                If (feature 8 <= 4.0)
                 Predict: 0.0
                Else (feature 8 > 4.0)
                 Predict: 0.0
               Else (feature 7 > 0.0)
                If (feature 9 <= 3.3229894638061523)
                 Predict: 1.0
                Else (feature 9 > 3.3229894638061523)
                 Predict: 0.0
             Else (feature 6 > 9.0)
              If (feature 9 <= 2.909090995788574)
               If (feature 9 <= 2.8408613204956055)
                Predict: 0.0
               Else (feature 9 > 2.8408613204956055)
                If (feature 6 <= 12.0)
                 Predict: 0.0
                Else (feature 6 > 12.0)
                 Predict: 0.0
              Else (feature 9 > 2.909090995788574)
               If (feature 6 <= 12.0)
                If (feature 6 <= 10.0)
                 Predict: 0.0
                Else (feature 6 > 10.0)
                 Predict: 0.0
               Else (feature 6 > 12.0)
                Predict: 0.0
            Else (feature 1 not in {62.0})
             If (feature 6 <= 1.0)
              Predict: 0.0
             Else (feature 6 > 1.0)
              Predict: 2.0
          Else (feature 9 > 3.4629361629486084)
           If (feature 9 <= 3.479278087615967)
            If (feature 6 <= 6.0)
             If (feature 6 <= 1.0)
              Predict: 0.0
             Else (feature 6 > 1.0)
              Predict: 2.0
            Else (feature 6 > 6.0)
             Predict: 0.0
           Else (feature 9 > 3.479278087615967)
            If (feature 9 <= 4.029007911682129)
             If (feature 9 <= 3.7837212085723877)
              If (feature 9 <= 3.7691402435302734)
               If (feature 9 <= 3.721376895904541)
                If (feature 8 <= 1.0)
                 Predict: 0.0
                Else (feature 8 > 1.0)
                 Predict: 0.0
               Else (feature 9 > 3.721376895904541)
                If (feature 6 <= 5.0)
                 Predict: 0.0
                Else (feature 6 > 5.0)
                 Predict: 0.0
              Else (feature 9 > 3.7691402435302734)
               If (feature 6 <= 5.0)
                If (feature 6 <= 2.0)
                 Predict: 2.0
                Else (feature 6 > 2.0)
                 Predict: 0.0
               Else (feature 6 > 5.0)
                Predict: 2.0
             Else (feature 9 > 3.7837212085723877)
              If (feature 8 <= 5.0)
               Predict: 0.0
              Else (feature 8 > 5.0)
               If (feature 6 <= 17.0)
                If (feature 6 <= 14.0)
                 Predict: 0.0
                Else (feature 6 > 14.0)
                 Predict: 2.0
               Else (feature 6 > 17.0)
                If (feature 9 <= 3.828483819961548)
                 Predict: 0.0
                Else (feature 9 > 3.828483819961548)
                 Predict: 0.0
            Else (feature 9 > 4.029007911682129)
             If (feature 6 <= 6.0)
              Predict: 2.0
             Else (feature 6 > 6.0)
              Predict: 0.0
         Else (feature 9 > 4.043071746826172)
          If (feature 6 <= 8.0)
           If (feature 8 <= 4.0)
            If (feature 9 <= 5.0)
             If (feature 8 <= 1.0)
              Predict: 0.0
             Else (feature 8 > 1.0)
              If (feature 9 <= 4.7515482902526855)
               If (feature 9 <= 4.198178768157959)
                If (feature 9 <= 4.166666507720947)
                 Predict: 0.0
                Else (feature 9 > 4.166666507720947)
                 Predict: 0.0
               Else (feature 9 > 4.198178768157959)
                If (feature 9 <= 4.495870113372803)
                 Predict: 0.0
                Else (feature 9 > 4.495870113372803)
                 Predict: 0.0
              Else (feature 9 > 4.7515482902526855)
               If (feature 9 <= 4.7769012451171875)
                If (feature 9 <= 4.761904716491699)
                 Predict: 0.0
                Else (feature 9 > 4.761904716491699)
                 Predict: 0.0
               Else (feature 9 > 4.7769012451171875)
                Predict: 0.0
            Else (feature 9 > 5.0)
             If (feature 9 <= 5.099228858947754)
              If (feature 9 <= 5.076142311096191)
               If (feature 9 <= 5.027933120727539)
                Predict: 0.0
               Else (feature 9 > 5.027933120727539)
                If (feature 9 <= 5.05263090133667)
                 Predict: 0.0
                Else (feature 9 > 5.05263090133667)
                 Predict: 0.0
              Else (feature 9 > 5.076142311096191)
               Predict: 2.0
             Else (feature 9 > 5.099228858947754)
              If (feature 9 <= 5.379587650299072)
               If (feature 9 <= 5.357142925262451)
                Predict: 0.0
               Else (feature 9 > 5.357142925262451)
                If (feature 6 <= 1.0)
                 Predict: 0.0
                Else (feature 6 > 1.0)
                 Predict: 0.0
              Else (feature 9 > 5.379587650299072)
               Predict: 0.0
           Else (feature 8 > 4.0)
            If (feature 9 <= 4.238615989685059)
             If (feature 9 <= 4.1284403800964355)
              Predict: 0.0
             Else (feature 9 > 4.1284403800964355)
              If (feature 6 <= 6.0)
               If (feature 6 <= 5.0)
                Predict: 0.0
               Else (feature 6 > 5.0)
                If (feature 7 <= 0.0)
                 Predict: 0.0
                Else (feature 7 > 0.0)
                 Predict: 0.0
              Else (feature 6 > 6.0)
               If (feature 7 <= 0.0)
                Predict: 1.0
               Else (feature 7 > 0.0)
                Predict: 2.0
            Else (feature 9 > 4.238615989685059)
             If (feature 9 <= 4.50837516784668)
              Predict: 0.0
             Else (feature 9 > 4.50837516784668)
              If (feature 9 <= 4.520396709442139)
               Predict: 2.0
              Else (feature 9 > 4.520396709442139)
               If (feature 9 <= 4.667410373687744)
                If (feature 6 <= 5.0)
                 Predict: 1.0
                Else (feature 6 > 5.0)
                 Predict: 0.0
               Else (feature 9 > 4.667410373687744)
                If (feature 9 <= 5.273833751678467)
                 Predict: 0.0
                Else (feature 9 > 5.273833751678467)
                 Predict: 0.0
          Else (feature 6 > 8.0)
           If (feature 9 <= 4.641350269317627)
            Predict: 0.0
           Else (feature 9 > 4.641350269317627)
            If (feature 9 <= 4.652645111083984)
             Predict: 2.0
            Else (feature 9 > 4.652645111083984)
             If (feature 6 <= 111.0)
              If (feature 9 <= 4.7272725105285645)
               If (feature 9 <= 4.705663681030273)
                Predict: 0.0
               Else (feature 9 > 4.705663681030273)
                Predict: 2.0
              Else (feature 9 > 4.7272725105285645)
               If (feature 9 <= 5.21652889251709)
                Predict: 0.0
               Else (feature 9 > 5.21652889251709)
                If (feature 9 <= 5.228758335113525)
                 Predict: 0.0
                Else (feature 9 > 5.228758335113525)
                 Predict: 0.0
             Else (feature 6 > 111.0)
              If (feature 7 <= 5.0)
               Predict: 2.0
              Else (feature 7 > 5.0)
               If (feature 7 <= 13.0)
                If (feature 6 <= 138.0)
                 Predict: 0.0
                Else (feature 6 > 138.0)
                 Predict: 2.0
               Else (feature 7 > 13.0)
                Predict: 0.0
     Else (feature 1 not in {181.0,199.0,202.0,207.0,208.0,210.0,212.0,214.0,215.0,216.0,220.0,222.0,223.0,224.0,225.0,226.0,227.0,228.0,230.0,233.0,234.0,238.0,158.0,194.0,182.0,45.0,200.0,164.0,160.0,62.0,149.0,195.0})
      If (feature 0 in {0.0})
       If (feature 1 in {107.0,205.0,145.0,139.0,119.0,176.0,65.0,21.0,109.0,59.0,77.0,85.0,102.0,143.0})
        If (feature 7 <= 1.0)
         If (feature 1 in {107.0,205.0,145.0,176.0,139.0,119.0,65.0})
          If (feature 9 <= 4.825538158416748)
           If (feature 9 <= 2.462780714035034)
            If (feature 9 <= 2.409613847732544)
             If (feature 8 <= 9.0)
              If (feature 9 <= 2.21649169921875)
               Predict: 0.0
              Else (feature 9 > 2.21649169921875)
               If (feature 2 in {83.0})
                Predict: 2.0
               Else (feature 2 not in {83.0})
                If (feature 9 <= 2.2471909523010254)
                 Predict: 1.0
                Else (feature 9 > 2.2471909523010254)
                 Predict: 0.0
             Else (feature 8 > 9.0)
              If (feature 1 in {139.0,145.0,176.0,65.0})
               If (feature 9 <= 1.769911527633667)
                If (feature 9 <= 1.5033849477767944)
                 Predict: 0.0
                Else (feature 9 > 1.5033849477767944)
                 Predict: 2.0
               Else (feature 9 > 1.769911527633667)
                Predict: 0.0
              Else (feature 1 not in {139.0,145.0,176.0,65.0})
               If (feature 9 <= 0.7352941036224365)
                Predict: 0.0
               Else (feature 9 > 0.7352941036224365)
                If (feature 9 <= 1.3333333730697632)
                 Predict: 1.0
                Else (feature 9 > 1.3333333730697632)
                 Predict: 0.0
            Else (feature 9 > 2.409613847732544)
             If (feature 6 <= 1.0)
              Predict: 0.0
             Else (feature 6 > 1.0)
              If (feature 6 <= 2.0)
               If (feature 1 in {107.0})
                Predict: 0.0
               Else (feature 1 not in {107.0})
                If (feature 9 <= 2.4383535385131836)
                 Predict: 1.0
                Else (feature 9 > 2.4383535385131836)
                 Predict: 1.0
              Else (feature 6 > 2.0)
               Predict: 0.0
           Else (feature 9 > 2.462780714035034)
            If (feature 8 <= 18.0)
             If (feature 9 <= 3.7037036418914795)
              If (feature 8 <= 8.0)
               Predict: 0.0
              Else (feature 8 > 8.0)
               If (feature 9 <= 3.305706024169922)
                Predict: 0.0
               Else (feature 9 > 3.305706024169922)
                If (feature 9 <= 3.3229894638061523)
                 Predict: 2.0
                Else (feature 9 > 3.3229894638061523)
                 Predict: 0.0
             Else (feature 9 > 3.7037036418914795)
              If (feature 9 <= 3.721376895904541)
               If (feature 1 in {65.0})
                Predict: 1.0
               Else (feature 1 not in {65.0})
                Predict: 0.0
              Else (feature 9 > 3.721376895904541)
               If (feature 8 <= 3.0)
                If (feature 7 <= 0.0)
                 Predict: 0.0
                Else (feature 7 > 0.0)
                 Predict: 0.0
               Else (feature 8 > 3.0)
                If (feature 9 <= 3.8876888751983643)
                 Predict: 0.0
                Else (feature 9 > 3.8876888751983643)
                 Predict: 0.0
            Else (feature 8 > 18.0)
             If (feature 9 <= 2.654867172241211)
              Predict: 2.0
             Else (feature 9 > 2.654867172241211)
              If (feature 1 in {65.0,107.0})
               Predict: 0.0
              Else (feature 1 not in {65.0,107.0})
               If (feature 9 <= 4.098360538482666)
                Predict: 2.0
               Else (feature 9 > 4.098360538482666)
                Predict: 0.0
          Else (feature 9 > 4.825538158416748)
           If (feature 9 <= 4.838595867156982)
            If (feature 6 <= 2.0)
             Predict: 2.0
            Else (feature 6 > 2.0)
             Predict: 0.0
           Else (feature 9 > 4.838595867156982)
            If (feature 9 <= 5.521472454071045)
             If (feature 9 <= 5.510204315185547)
              If (feature 1 in {107.0,176.0,205.0,145.0,65.0,119.0})
               If (feature 6 <= 1.0)
                If (feature 9 <= 4.979811668395996)
                 Predict: 0.0
                Else (feature 9 > 4.979811668395996)
                 Predict: 0.0
               Else (feature 6 > 1.0)
                If (feature 1 in {107.0,176.0,205.0,65.0,145.0})
                 Predict: 0.0
                Else (feature 1 not in {107.0,176.0,205.0,65.0,145.0})
                 Predict: 0.0
              Else (feature 1 not in {107.0,176.0,205.0,145.0,65.0,119.0})
               If (feature 9 <= 5.379587650299072)
                If (feature 9 <= 5.099228858947754)
                 Predict: 0.0
                Else (feature 9 > 5.099228858947754)
                 Predict: 0.0
               Else (feature 9 > 5.379587650299072)
                Predict: 2.0
             Else (feature 9 > 5.510204315185547)
              Predict: 1.0
            Else (feature 9 > 5.521472454071045)
             Predict: 0.0
         Else (feature 1 not in {107.0,205.0,145.0,176.0,139.0,119.0,65.0})
          If (feature 8 <= 2.0)
           If (feature 1 in {109.0,143.0,21.0})
            If (feature 9 <= 5.240174770355225)
             If (feature 9 <= 0.0)
              If (feature 5 <= 6.0)
               If (feature 6 <= 1.0)
                Predict: 0.0
               Else (feature 6 > 1.0)
                Predict: 1.0
              Else (feature 5 > 6.0)
               If (feature 6 <= 1.0)
                Predict: 0.0
               Else (feature 6 > 1.0)
                If (feature 1 in {109.0})
                 Predict: 0.0
                Else (feature 1 not in {109.0})
                 Predict: 0.0
             Else (feature 9 > 0.0)
              If (feature 9 <= 4.895104885101318)
               If (feature 9 <= 3.4629361629486084)
                If (feature 9 <= 3.2335169315338135)
                 Predict: 0.0
                Else (feature 9 > 3.2335169315338135)
                 Predict: 0.0
               Else (feature 9 > 3.4629361629486084)
                If (feature 9 <= 3.5425100326538086)
                 Predict: 0.0
                Else (feature 9 > 3.5425100326538086)
                 Predict: 0.0
              Else (feature 9 > 4.895104885101318)
               If (feature 8 <= 1.0)
                Predict: 0.0
               Else (feature 8 > 1.0)
                If (feature 9 <= 5.1094889640808105)
                 Predict: 0.0
                Else (feature 9 > 5.1094889640808105)
                 Predict: 0.0
            Else (feature 9 > 5.240174770355225)
             If (feature 9 <= 5.273833751678467)
              If (feature 9 <= 5.262628555297852)
               If (feature 6 <= 1.0)
                If (feature 1 in {109.0})
                 Predict: 0.0
                Else (feature 1 not in {109.0})
                 Predict: 0.0
               Else (feature 6 > 1.0)
                Predict: 0.0
              Else (feature 9 > 5.262628555297852)
               If (feature 6 <= 1.0)
                Predict: 0.0
               Else (feature 6 > 1.0)
                Predict: 0.0
             Else (feature 9 > 5.273833751678467)
              If (feature 9 <= 5.590062141418457)
               If (feature 9 <= 5.55555534362793)
                If (feature 9 <= 5.379587650299072)
                 Predict: 0.0
                Else (feature 9 > 5.379587650299072)
                 Predict: 0.0
               Else (feature 9 > 5.55555534362793)
                If (feature 9 <= 5.5674519538879395)
                 Predict: 2.0
                Else (feature 9 > 5.5674519538879395)
                 Predict: 0.0
              Else (feature 9 > 5.590062141418457)
               If (feature 9 <= 5.688622951507568)
                Predict: 0.0
               Else (feature 9 > 5.688622951507568)
                If (feature 9 <= 5.798941135406494)
                 Predict: 0.0
                Else (feature 9 > 5.798941135406494)
                 Predict: 0.0
           Else (feature 1 not in {109.0,143.0,21.0})
            If (feature 6 <= 16.0)
             If (feature 9 <= 3.9733197689056396)
              If (feature 6 <= 12.0)
               If (feature 9 <= 3.8876888751983643)
                If (feature 9 <= 3.0141844749450684)
                 Predict: 0.0
                Else (feature 9 > 3.0141844749450684)
                 Predict: 0.0
               Else (feature 9 > 3.8876888751983643)
                If (feature 1 in {85.0,102.0,77.0})
                 Predict: 0.0
                Else (feature 1 not in {85.0,102.0,77.0})
                 Predict: 2.0
              Else (feature 6 > 12.0)
               Predict: 1.0
             Else (feature 9 > 3.9733197689056396)
              If (feature 1 in {77.0,59.0})
               If (feature 6 <= 1.0)
                If (feature 9 <= 4.692506313323975)
                 Predict: 0.0
                Else (feature 9 > 4.692506313323975)
                 Predict: 0.0
               Else (feature 6 > 1.0)
                If (feature 9 <= 5.05263090133667)
                 Predict: 0.0
                Else (feature 9 > 5.05263090133667)
                 Predict: 0.0
              Else (feature 1 not in {77.0,59.0})
               If (feature 6 <= 8.0)
                If (feature 9 <= 4.331683158874512)
                 Predict: 0.0
                Else (feature 9 > 4.331683158874512)
                 Predict: 0.0
               Else (feature 6 > 8.0)
                Predict: 2.0
            Else (feature 6 > 16.0)
             Predict: 2.0
          Else (feature 8 > 2.0)
           If (feature 9 <= 2.3138833045959473)
            If (feature 9 <= 1.937185287475586)
             If (feature 9 <= 1.7234625816345215)
              If (feature 6 <= 12.0)
               If (feature 1 in {109.0,77.0,21.0,59.0,102.0})
                If (feature 9 <= 1.6742770671844482)
                 Predict: 0.0
                Else (feature 9 > 1.6742770671844482)
                 Predict: 0.0
               Else (feature 1 not in {109.0,77.0,21.0,59.0,102.0})
                If (feature 6 <= 9.0)
                 Predict: 0.0
                Else (feature 6 > 9.0)
                 Predict: 2.0
              Else (feature 6 > 12.0)
               If (feature 8 <= 7.0)
                Predict: 2.0
               Else (feature 8 > 7.0)
                If (feature 6 <= 18.0)
                 Predict: 0.0
                Else (feature 6 > 18.0)
                 Predict: 0.0
             Else (feature 9 > 1.7234625816345215)
              Predict: 0.0
            Else (feature 9 > 1.937185287475586)
             If (feature 1 in {59.0,85.0,109.0,21.0,77.0})
              If (feature 9 <= 2.1180031299591064)
               If (feature 6 <= 5.0)
                If (feature 6 <= 3.0)
                 Predict: 0.0
                Else (feature 6 > 3.0)
                 Predict: 0.0
               Else (feature 6 > 5.0)
                If (feature 8 <= 14.0)
                 Predict: 0.0
                Else (feature 8 > 14.0)
                 Predict: 0.0
              Else (feature 9 > 2.1180031299591064)
               If (feature 7 <= 0.0)
                If (feature 9 <= 2.2813687324523926)
                 Predict: 0.0
                Else (feature 9 > 2.2813687324523926)
                 Predict: 0.0
               Else (feature 7 > 0.0)
                If (feature 6 <= 5.0)
                 Predict: 0.0
                Else (feature 6 > 5.0)
                 Predict: 0.0
             Else (feature 1 not in {59.0,85.0,109.0,21.0,77.0})
              If (feature 9 <= 1.9753086566925049)
               Predict: 0.0
              Else (feature 9 > 1.9753086566925049)
               If (feature 1 in {143.0})
                Predict: 2.0
               Else (feature 1 not in {143.0})
                If (feature 6 <= 4.0)
                 Predict: 2.0
                Else (feature 6 > 4.0)
                 Predict: 0.0
           Else (feature 9 > 2.3138833045959473)
            If (feature 6 <= 6.0)
             If (feature 8 <= 4.0)
              If (feature 9 <= 3.8739330768585205)
               If (feature 1 in {102.0,109.0,143.0,21.0,77.0})
                If (feature 9 <= 2.409613847732544)
                 Predict: 0.0
                Else (feature 9 > 2.409613847732544)
                 Predict: 0.0
               Else (feature 1 not in {102.0,109.0,143.0,21.0,77.0})
                If (feature 9 <= 2.972583532333374)
                 Predict: 0.0
                Else (feature 9 > 2.972583532333374)
                 Predict: 0.0
              Else (feature 9 > 3.8739330768585205)
               If (feature 9 <= 3.8876888751983643)
                Predict: 0.0
               Else (feature 9 > 3.8876888751983643)
                If (feature 7 <= 0.0)
                 Predict: 0.0
                Else (feature 7 > 0.0)
                 Predict: 0.0
             Else (feature 8 > 4.0)
              If (feature 1 in {85.0,21.0,102.0,59.0,77.0})
               If (feature 9 <= 4.0159759521484375)
                If (feature 9 <= 3.653846263885498)
                 Predict: 0.0
                Else (feature 9 > 3.653846263885498)
                 Predict: 0.0
               Else (feature 9 > 4.0159759521484375)
                If (feature 9 <= 5.602923393249512)
                 Predict: 0.0
                Else (feature 9 > 5.602923393249512)
                 Predict: 0.0
              Else (feature 1 not in {85.0,21.0,102.0,59.0,77.0})
               If (feature 9 <= 4.331683158874512)
                If (feature 9 <= 2.9534964561462402)
                 Predict: 0.0
                Else (feature 9 > 2.9534964561462402)
                 Predict: 0.0
               Else (feature 9 > 4.331683158874512)
                If (feature 9 <= 5.1094889640808105)
                 Predict: 2.0
                Else (feature 9 > 5.1094889640808105)
                 Predict: 0.0
            Else (feature 6 > 6.0)
             If (feature 9 <= 4.3477582931518555)
              If (feature 7 <= 0.0)
               If (feature 9 <= 4.0)
                If (feature 9 <= 3.986711025238037)
                 Predict: 0.0
                Else (feature 9 > 3.986711025238037)
                 Predict: 0.0
               Else (feature 9 > 4.0)
                If (feature 8 <= 18.0)
                 Predict: 0.0
                Else (feature 8 > 18.0)
                 Predict: 0.0
              Else (feature 7 > 0.0)
               If (feature 9 <= 4.166666507720947)
                If (feature 6 <= 8.0)
                 Predict: 0.0
                Else (feature 6 > 8.0)
                 Predict: 0.0
               Else (feature 9 > 4.166666507720947)
                If (feature 9 <= 4.198178768157959)
                 Predict: 1.0
                Else (feature 9 > 4.198178768157959)
                 Predict: 0.0
             Else (feature 9 > 4.3477582931518555)
              If (feature 9 <= 4.3596510887146)
               If (feature 1 in {59.0})
                Predict: 1.0
               Else (feature 1 not in {59.0})
                If (feature 6 <= 12.0)
                 Predict: 0.0
                Else (feature 6 > 12.0)
                 Predict: 0.0
              Else (feature 9 > 4.3596510887146)
               If (feature 1 in {143.0,109.0,59.0,85.0,21.0,77.0})
                If (feature 6 <= 8.0)
                 Predict: 0.0
                Else (feature 6 > 8.0)
                 Predict: 0.0
               Else (feature 1 not in {143.0,109.0,59.0,85.0,21.0,77.0})
                If (feature 6 <= 8.0)
                 Predict: 0.0
                Else (feature 6 > 8.0)
                 Predict: 0.0
        Else (feature 7 > 1.0)
         If (feature 7 <= 104.0)
          If (feature 9 <= 1.3888888359069824)
           If (feature 7 <= 5.0)
            Predict: 1.0
           Else (feature 7 > 5.0)
            Predict: 0.0
          Else (feature 9 > 1.3888888359069824)
           If (feature 1 in {85.0,102.0,107.0,119.0,139.0,145.0,77.0,21.0})
            If (feature 9 <= 5.8111371994018555)
             If (feature 9 <= 5.133614540100098)
              If (feature 9 <= 5.0)
               If (feature 9 <= 4.615384578704834)
                If (feature 9 <= 4.581151962280273)
                 Predict: 0.0
                Else (feature 9 > 4.581151962280273)
                 Predict: 0.0
               Else (feature 9 > 4.615384578704834)
                Predict: 0.0
              Else (feature 9 > 5.0)
               If (feature 9 <= 5.04022741317749)
                If (feature 7 <= 5.0)
                 Predict: 1.0
                Else (feature 7 > 5.0)
                 Predict: 0.0
               Else (feature 9 > 5.04022741317749)
                If (feature 7 <= 2.0)
                 Predict: 0.0
                Else (feature 7 > 2.0)
                 Predict: 0.0
             Else (feature 9 > 5.133614540100098)
              Predict: 0.0
            Else (feature 9 > 5.8111371994018555)
             If (feature 7 <= 2.0)
              If (feature 6 <= 9.0)
               Predict: 0.0
              Else (feature 6 > 9.0)
               Predict: 2.0
             Else (feature 7 > 2.0)
              Predict: 0.0
           Else (feature 1 not in {85.0,102.0,107.0,119.0,139.0,145.0,77.0,21.0})
            If (feature 9 <= 5.602923393249512)
             If (feature 6 <= 29.0)
              If (feature 6 <= 19.0)
               Predict: 0.0
              Else (feature 6 > 19.0)
               If (feature 6 <= 20.0)
                If (feature 9 <= 4.156299114227295)
                 Predict: 0.0
                Else (feature 9 > 4.156299114227295)
                 Predict: 0.0
               Else (feature 6 > 20.0)
                Predict: 0.0
             Else (feature 6 > 29.0)
              If (feature 9 <= 4.918032646179199)
               If (feature 1 in {109.0,65.0})
                If (feature 7 <= 8.0)
                 Predict: 0.0
                Else (feature 7 > 8.0)
                 Predict: 0.0
               Else (feature 1 not in {109.0,65.0})
                If (feature 9 <= 4.42259407043457)
                 Predict: 0.0
                Else (feature 9 > 4.42259407043457)
                 Predict: 0.0
              Else (feature 9 > 4.918032646179199)
               If (feature 9 <= 5.179028034210205)
                If (feature 6 <= 50.0)
                 Predict: 2.0
                Else (feature 6 > 50.0)
                 Predict: 0.0
               Else (feature 9 > 5.179028034210205)
                Predict: 0.0
            Else (feature 9 > 5.602923393249512)
             If (feature 1 in {59.0})
              Predict: 0.0
             Else (feature 1 not in {59.0})
              Predict: 2.0
         Else (feature 7 > 104.0)
          If (feature 9 <= 4.373178005218506)
           Predict: 0.0
          Else (feature 9 > 4.373178005218506)
           Predict: 2.0
       Else (feature 1 not in {107.0,205.0,145.0,139.0,119.0,176.0,65.0,21.0,109.0,59.0,77.0,85.0,102.0,143.0})
        If (feature 5 <= 8.0)
         If (feature 9 <= 3.2691268920898438)
          If (feature 6 <= 4.0)
           Predict: 0.0
          Else (feature 6 > 4.0)
           If (feature 9 <= 1.0416666269302368)
            Predict: 0.0
           Else (feature 9 > 1.0416666269302368)
            If (feature 9 <= 1.5659955739974976)
             Predict: 1.0
            Else (feature 9 > 1.5659955739974976)
             If (feature 6 <= 9.0)
              Predict: 0.0
             Else (feature 6 > 9.0)
              If (feature 1 in {111.0})
               Predict: 0.0
              Else (feature 1 not in {111.0})
               If (feature 7 <= 0.0)
                If (feature 9 <= 2.7297542095184326)
                 Predict: 0.0
                Else (feature 9 > 2.7297542095184326)
                 Predict: 1.0
               Else (feature 7 > 0.0)
                Predict: 0.0
         Else (feature 9 > 3.2691268920898438)
          If (feature 9 <= 4.705663681030273)
           If (feature 9 <= 4.692506313323975)
            If (feature 9 <= 3.479278087615967)
             If (feature 9 <= 3.4482126235961914)
              If (feature 9 <= 3.2885262966156006)
               Predict: 2.0
              Else (feature 9 > 3.2885262966156006)
               If (feature 9 <= 3.409090995788574)
                Predict: 0.0
               Else (feature 9 > 3.409090995788574)
                If (feature 9 <= 3.427719831466675)
                 Predict: 2.0
                Else (feature 9 > 3.427719831466675)
                 Predict: 0.0
             Else (feature 9 > 3.4482126235961914)
              Predict: 1.0
            Else (feature 9 > 3.479278087615967)
             If (feature 6 <= 2.0)
              If (feature 9 <= 3.7037036418914795)
               If (feature 1 in {111.0})
                Predict: 2.0
               Else (feature 1 not in {111.0})
                Predict: 0.0
              Else (feature 9 > 3.7037036418914795)
               Predict: 0.0
             Else (feature 6 > 2.0)
              If (feature 6 <= 8.0)
               If (feature 6 <= 7.0)
                If (feature 7 <= 1.0)
                 Predict: 0.0
                Else (feature 7 > 1.0)
                 Predict: 1.0
               Else (feature 6 > 7.0)
                If (feature 9 <= 4.266080856323242)
                 Predict: 0.0
                Else (feature 9 > 4.266080856323242)
                 Predict: 2.0
              Else (feature 6 > 8.0)
               If (feature 9 <= 4.397253513336182)
                If (feature 6 <= 10.0)
                 Predict: 0.0
                Else (feature 6 > 10.0)
                 Predict: 0.0
               Else (feature 9 > 4.397253513336182)
                If (feature 9 <= 4.50837516784668)
                 Predict: 2.0
                Else (feature 9 > 4.50837516784668)
                 Predict: 0.0
           Else (feature 9 > 4.692506313323975)
            If (feature 1 in {128.0})
             Predict: 2.0
            Else (feature 1 not in {128.0})
             If (feature 6 <= 2.0)
              Predict: 1.0
             Else (feature 6 > 2.0)
              Predict: 0.0
          Else (feature 9 > 4.705663681030273)
           If (feature 9 <= 5.21652889251709)
            Predict: 0.0
           Else (feature 9 > 5.21652889251709)
            If (feature 9 <= 5.228758335113525)
             If (feature 1 in {128.0})
              Predict: 0.0
             Else (feature 1 not in {128.0})
              Predict: 2.0
            Else (feature 9 > 5.228758335113525)
             If (feature 9 <= 5.391120433807373)
              If (feature 9 <= 5.379587650299072)
               Predict: 0.0
              Else (feature 9 > 5.379587650299072)
               Predict: 2.0
             Else (feature 9 > 5.391120433807373)
              If (feature 9 <= 5.614862442016602)
               If (feature 9 <= 5.602923393249512)
                Predict: 0.0
               Else (feature 9 > 5.602923393249512)
                Predict: 2.0
              Else (feature 9 > 5.614862442016602)
               Predict: 0.0
        Else (feature 5 > 8.0)
         If (feature 9 <= 2.4920175075531006)
          If (feature 8 <= 1.0)
           Predict: 1.0
          Else (feature 8 > 1.0)
           If (feature 9 <= 2.3804855346679688)
            If (feature 9 <= 0.5970149040222168)
             If (feature 6 <= 3.0)
              Predict: 1.0
             Else (feature 6 > 3.0)
              If (feature 9 <= 0.0)
               If (feature 6 <= 7.0)
                Predict: 0.0
               Else (feature 6 > 7.0)
                Predict: 0.0
              Else (feature 9 > 0.0)
               Predict: 1.0
            Else (feature 9 > 0.5970149040222168)
             Predict: 0.0
           Else (feature 9 > 2.3804855346679688)
            If (feature 6 <= 4.0)
             Predict: 1.0
            Else (feature 6 > 4.0)
             If (feature 6 <= 5.0)
              Predict: 0.0
             Else (feature 6 > 5.0)
              Predict: 1.0
         Else (feature 9 > 2.4920175075531006)
          If (feature 9 <= 4.593607425689697)
           If (feature 1 in {154.0,150.0})
            If (feature 6 <= 3.0)
             If (feature 8 <= 2.0)
              If (feature 9 <= 3.6363637447357178)
               If (feature 9 <= 3.592712879180908)
                Predict: 0.0
               Else (feature 9 > 3.592712879180908)
                Predict: 1.0
              Else (feature 9 > 3.6363637447357178)
               Predict: 0.0
             Else (feature 8 > 2.0)
              If (feature 9 <= 3.592712879180908)
               Predict: 0.0
              Else (feature 9 > 3.592712879180908)
               If (feature 1 in {150.0})
                Predict: 2.0
               Else (feature 1 not in {150.0})
                Predict: 0.0
            Else (feature 6 > 3.0)
             Predict: 0.0
           Else (feature 1 not in {154.0,150.0})
            If (feature 8 <= 1.0)
             If (feature 6 <= 6.0)
              Predict: 0.0
             Else (feature 6 > 6.0)
              Predict: 2.0
            Else (feature 8 > 1.0)
             Predict: 0.0
          Else (feature 9 > 4.593607425689697)
           If (feature 1 in {154.0})
            If (feature 9 <= 5.738232135772705)
             Predict: 0.0
            Else (feature 9 > 5.738232135772705)
             Predict: 2.0
           Else (feature 1 not in {154.0})
            If (feature 9 <= 5.04022741317749)
             If (feature 6 <= 1.0)
              Predict: 1.0
             Else (feature 6 > 1.0)
              If (feature 6 <= 4.0)
               Predict: 0.0
              Else (feature 6 > 4.0)
               If (feature 6 <= 14.0)
                If (feature 6 <= 8.0)
                 Predict: 0.0
                Else (feature 6 > 8.0)
                 Predict: 1.0
               Else (feature 6 > 14.0)
                Predict: 0.0
            Else (feature 9 > 5.04022741317749)
             If (feature 9 <= 5.590062141418457)
              Predict: 0.0
             Else (feature 9 > 5.590062141418457)
              If (feature 9 <= 5.626052379608154)
               Predict: 1.0
              Else (feature 9 > 5.626052379608154)
               Predict: 0.0
      Else (feature 0 not in {0.0})
       If (feature 6 <= 24.0)
        If (feature 9 <= 5.72519063949585)
         If (feature 9 <= 5.675146579742432)
          If (feature 9 <= 1.2658227682113647)
           If (feature 1 in {154.0,176.0,179.0,205.0,111.0,139.0,85.0,21.0,59.0,65.0,102.0,128.0})
            If (feature 8 <= 22.0)
             If (feature 9 <= 0.0)
              If (feature 1 in {154.0,179.0,205.0,59.0,21.0,85.0,65.0,128.0,139.0,111.0})
               If (feature 1 in {154.0,179.0,205.0,59.0,21.0,85.0,65.0,128.0,139.0})
                If (feature 8 <= 1.0)
                 Predict: 0.0
                Else (feature 8 > 1.0)
                 Predict: 0.0
               Else (feature 1 not in {154.0,179.0,205.0,59.0,21.0,85.0,65.0,128.0,139.0})
                If (feature 6 <= 6.0)
                 Predict: 0.0
                Else (feature 6 > 6.0)
                 Predict: 0.0
              Else (feature 1 not in {154.0,179.0,205.0,59.0,21.0,85.0,65.0,128.0,139.0,111.0})
               If (feature 6 <= 1.0)
                Predict: 2.0
               Else (feature 6 > 1.0)
                If (feature 6 <= 5.0)
                 Predict: 0.0
                Else (feature 6 > 5.0)
                 Predict: 0.0
             Else (feature 9 > 0.0)
              If (feature 4 in {0.0})
               If (feature 8 <= 2.0)
                Predict: 0.0
               Else (feature 8 > 2.0)
                If (feature 6 <= 3.0)
                 Predict: 2.0
                Else (feature 6 > 3.0)
                 Predict: 0.0
              Else (feature 4 not in {0.0})
               If (feature 7 <= 1.0)
                If (feature 8 <= 9.0)
                 Predict: 0.0
                Else (feature 8 > 9.0)
                 Predict: 0.0
               Else (feature 7 > 1.0)
                If (feature 9 <= 1.1173183917999268)
                 Predict: 0.0
                Else (feature 9 > 1.1173183917999268)
                 Predict: 0.0
            Else (feature 8 > 22.0)
             If (feature 7 <= 1.0)
              Predict: 0.0
             Else (feature 7 > 1.0)
              If (feature 7 <= 2.0)
               Predict: 1.0
              Else (feature 7 > 2.0)
               Predict: 0.0
           Else (feature 1 not in {154.0,176.0,179.0,205.0,111.0,139.0,85.0,21.0,59.0,65.0,102.0,128.0})
            If (feature 9 <= 0.0)
             If (feature 7 <= 0.0)
              If (feature 1 in {143.0,145.0,109.0,119.0,77.0,107.0})
               If (feature 1 in {143.0})
                If (feature 6 <= 5.0)
                 Predict: 0.0
                Else (feature 6 > 5.0)
                 Predict: 0.0
               Else (feature 1 not in {143.0})
                If (feature 6 <= 10.0)
                 Predict: 0.0
                Else (feature 6 > 10.0)
                 Predict: 0.0
              Else (feature 1 not in {143.0,145.0,109.0,119.0,77.0,107.0})
               If (feature 6 <= 1.0)
                Predict: 0.0
               Else (feature 6 > 1.0)
                If (feature 6 <= 6.0)
                 Predict: 2.0
                Else (feature 6 > 6.0)
                 Predict: 0.0
             Else (feature 7 > 0.0)
              If (feature 1 in {77.0})
               Predict: 0.0
              Else (feature 1 not in {77.0})
               Predict: 2.0
            Else (feature 9 > 0.0)
             If (feature 1 in {107.0,119.0,150.0,77.0,109.0})
              If (feature 8 <= 9.0)
               Predict: 0.0
              Else (feature 8 > 9.0)
               If (feature 6 <= 10.0)
                If (feature 9 <= 0.9523809552192688)
                 Predict: 0.0
                Else (feature 9 > 0.9523809552192688)
                 Predict: 0.0
               Else (feature 6 > 10.0)
                Predict: 0.0
             Else (feature 1 not in {107.0,119.0,150.0,77.0,109.0})
              If (feature 6 <= 1.0)
               Predict: 2.0
              Else (feature 6 > 1.0)
               If (feature 9 <= 0.8474576473236084)
                If (feature 6 <= 5.0)
                 Predict: 1.0
                Else (feature 6 > 5.0)
                 Predict: 0.0
               Else (feature 9 > 0.8474576473236084)
                If (feature 9 <= 1.1173183917999268)
                 Predict: 0.0
                Else (feature 9 > 1.1173183917999268)
                 Predict: 0.0
          Else (feature 9 > 1.2658227682113647)
           If (feature 1 in {150.0,179.0,77.0,109.0,154.0,111.0})
            If (feature 7 <= 4.0)
             If (feature 1 in {150.0,154.0,179.0,77.0,109.0})
              If (feature 9 <= 3.2885262966156006)
               If (feature 9 <= 2.3138833045959473)
                If (feature 4 in {0.0})
                 Predict: 0.0
                Else (feature 4 not in {0.0})
                 Predict: 0.0
               Else (feature 9 > 2.3138833045959473)
                If (feature 9 <= 2.345065116882324)
                 Predict: 0.0
                Else (feature 9 > 2.345065116882324)
                 Predict: 0.0
              Else (feature 9 > 3.2885262966156006)
               If (feature 9 <= 3.5087718963623047)
                If (feature 6 <= 1.0)
                 Predict: 0.0
                Else (feature 6 > 1.0)
                 Predict: 0.0
               Else (feature 9 > 3.5087718963623047)
                If (feature 9 <= 4.1128082275390625)
                 Predict: 0.0
                Else (feature 9 > 4.1128082275390625)
                 Predict: 0.0
             Else (feature 1 not in {150.0,154.0,179.0,77.0,109.0})
              If (feature 9 <= 3.8876888751983643)
               If (feature 8 <= 3.0)
                Predict: 0.0
               Else (feature 8 > 3.0)
                If (feature 9 <= 3.6363637447357178)
                 Predict: 0.0
                Else (feature 9 > 3.6363637447357178)
                 Predict: 0.0
              Else (feature 9 > 3.8876888751983643)
               If (feature 9 <= 3.900498151779175)
                Predict: 1.0
               Else (feature 9 > 3.900498151779175)
                If (feature 6 <= 5.0)
                 Predict: 0.0
                Else (feature 6 > 5.0)
                 Predict: 0.0
            Else (feature 7 > 4.0)
             If (feature 3 in {5.0,18.0,15.0})
              If (feature 1 in {77.0,109.0,150.0})
               Predict: 0.0
              Else (feature 1 not in {77.0,109.0,150.0})
               If (feature 9 <= 3.479278087615967)
                Predict: 0.0
               Else (feature 9 > 3.479278087615967)
                Predict: 1.0
             Else (feature 3 not in {5.0,18.0,15.0})
              If (feature 7 <= 6.0)
               Predict: 1.0
              Else (feature 7 > 6.0)
               Predict: 0.0
           Else (feature 1 not in {150.0,179.0,77.0,109.0,154.0,111.0})
            If (feature 9 <= 2.462780714035034)
             If (feature 6 <= 17.0)
              If (feature 1 in {145.0,176.0,205.0,65.0,21.0,59.0,85.0,102.0})
               If (feature 8 <= 1.0)
                If (feature 1 in {59.0,65.0,85.0,102.0})
                 Predict: 0.0
                Else (feature 1 not in {59.0,65.0,85.0,102.0})
                 Predict: 0.0
               Else (feature 8 > 1.0)
                If (feature 5 <= 12.0)
                 Predict: 0.0
                Else (feature 5 > 12.0)
                 Predict: 0.0
              Else (feature 1 not in {145.0,176.0,205.0,65.0,21.0,59.0,85.0,102.0})
               If (feature 9 <= 2.4383535385131836)
                If (feature 9 <= 2.150099039077759)
                 Predict: 0.0
                Else (feature 9 > 2.150099039077759)
                 Predict: 0.0
               Else (feature 9 > 2.4383535385131836)
                If (feature 1 in {119.0})
                 Predict: 2.0
                Else (feature 1 not in {119.0})
                 Predict: 0.0
             Else (feature 6 > 17.0)
              If (feature 9 <= 1.3333333730697632)
               If (feature 1 in {21.0,59.0})
                Predict: 1.0
               Else (feature 1 not in {21.0,59.0})
                Predict: 0.0
              Else (feature 9 > 1.3333333730697632)
               If (feature 8 <= 2.0)
                If (feature 9 <= 1.6742770671844482)
                 Predict: 0.0
                Else (feature 9 > 1.6742770671844482)
                 Predict: 2.0
               Else (feature 8 > 2.0)
                If (feature 1 in {85.0,128.0,139.0,143.0,21.0,65.0})
                 Predict: 0.0
                Else (feature 1 not in {85.0,128.0,139.0,143.0,21.0,65.0})
                 Predict: 0.0
            Else (feature 9 > 2.462780714035034)
             If (feature 9 <= 3.3921303749084473)
              If (feature 9 <= 2.597402572631836)
               If (feature 1 in {59.0,85.0,119.0,128.0,139.0,143.0,162.0,21.0,65.0,102.0})
                If (feature 8 <= 17.0)
                 Predict: 0.0
                Else (feature 8 > 17.0)
                 Predict: 0.0
               Else (feature 1 not in {59.0,85.0,119.0,128.0,139.0,143.0,162.0,21.0,65.0,102.0})
                If (feature 9 <= 2.5179314613342285)
                 Predict: 1.0
                Else (feature 9 > 2.5179314613342285)
                 Predict: 0.0
              Else (feature 9 > 2.597402572631836)
               If (feature 8 <= 6.0)
                If (feature 7 <= 3.0)
                 Predict: 0.0
                Else (feature 7 > 3.0)
                 Predict: 2.0
               Else (feature 8 > 6.0)
                If (feature 4 in {1.0})
                 Predict: 0.0
                Else (feature 4 not in {1.0})
                 Predict: 0.0
             Else (feature 9 > 3.3921303749084473)
              If (feature 9 <= 3.623133420944214)
               If (feature 6 <= 6.0)
                If (feature 9 <= 3.6055142879486084)
                 Predict: 0.0
                Else (feature 9 > 3.6055142879486084)
                 Predict: 0.0
               Else (feature 6 > 6.0)
                If (feature 1 in {102.0,119.0,128.0,139.0,143.0,21.0})
                 Predict: 0.0
                Else (feature 1 not in {102.0,119.0,128.0,139.0,143.0,21.0})
                 Predict: 0.0
              Else (feature 9 > 3.623133420944214)
               If (feature 9 <= 4.7272725105285645)
                If (feature 1 in {143.0,145.0,162.0,107.0,119.0,85.0,65.0,139.0,21.0,59.0,128.0,102.0})
                 Predict: 0.0
                Else (feature 1 not in {143.0,145.0,162.0,107.0,119.0,85.0,65.0,139.0,21.0,59.0,128.0,102.0})
                 Predict: 0.0
               Else (feature 9 > 4.7272725105285645)
                If (feature 7 <= 2.0)
                 Predict: 0.0
                Else (feature 7 > 2.0)
                 Predict: 0.0
         Else (feature 9 > 5.675146579742432)
          If (feature 1 in {102.0,107.0,119.0,128.0,139.0,143.0,162.0,59.0,21.0})
           If (feature 7 <= 5.0)
            If (feature 6 <= 20.0)
             If (feature 1 in {102.0,107.0,119.0,128.0,139.0,143.0,162.0,59.0})
              If (feature 9 <= 5.714210033416748)
               Predict: 0.0
              Else (feature 9 > 5.714210033416748)
               If (feature 1 in {59.0})
                Predict: 1.0
               Else (feature 1 not in {59.0})
                Predict: 0.0
             Else (feature 1 not in {102.0,107.0,119.0,128.0,139.0,143.0,162.0,59.0})
              If (feature 9 <= 5.714210033416748)
               If (feature 9 <= 5.701754570007324)
                If (feature 8 <= 8.0)
                 Predict: 0.0
                Else (feature 8 > 8.0)
                 Predict: 0.0
               Else (feature 9 > 5.701754570007324)
                If (feature 6 <= 6.0)
                 Predict: 0.0
                Else (feature 6 > 6.0)
                 Predict: 0.0
              Else (feature 9 > 5.714210033416748)
               If (feature 7 <= 0.0)
                If (feature 6 <= 5.0)
                 Predict: 0.0
                Else (feature 6 > 5.0)
                 Predict: 0.0
               Else (feature 7 > 0.0)
                If (feature 6 <= 9.0)
                 Predict: 0.0
                Else (feature 6 > 9.0)
                 Predict: 0.0
            Else (feature 6 > 20.0)
             If (feature 9 <= 5.688622951507568)
              Predict: 0.0
             Else (feature 9 > 5.688622951507568)
              Predict: 2.0
           Else (feature 7 > 5.0)
            Predict: 2.0
          Else (feature 1 not in {102.0,107.0,119.0,128.0,139.0,143.0,162.0,59.0,21.0})
           If (feature 8 <= 2.0)
            If (feature 9 <= 5.688622951507568)
             If (feature 2 in {28.0,60.0,67.0})
              Predict: 0.0
             Else (feature 2 not in {28.0,60.0,67.0})
              Predict: 2.0
            Else (feature 9 > 5.688622951507568)
             Predict: 2.0
           Else (feature 8 > 2.0)
            If (feature 6 <= 18.0)
             If (feature 1 in {145.0,77.0,85.0,109.0})
              If (feature 6 <= 8.0)
               If (feature 6 <= 5.0)
                Predict: 0.0
               Else (feature 6 > 5.0)
                Predict: 2.0
              Else (feature 6 > 8.0)
               Predict: 0.0
             Else (feature 1 not in {145.0,77.0,85.0,109.0})
              If (feature 9 <= 5.688622951507568)
               Predict: 0.0
              Else (feature 9 > 5.688622951507568)
               Predict: 2.0
            Else (feature 6 > 18.0)
             Predict: 2.0
        Else (feature 9 > 5.72519063949585)
         If (feature 8 <= 18.0)
          If (feature 7 <= 2.0)
           If (feature 9 <= 5.738232135772705)
            If (feature 7 <= 0.0)
             If (feature 6 <= 5.0)
              If (feature 8 <= 4.0)
               Predict: 0.0
              Else (feature 8 > 4.0)
               Predict: 0.0
             Else (feature 6 > 5.0)
              Predict: 0.0
            Else (feature 7 > 0.0)
             If (feature 6 <= 4.0)
              Predict: 1.0
             Else (feature 6 > 4.0)
              Predict: 0.0
           Else (feature 9 > 5.738232135772705)
            If (feature 1 in {21.0,59.0,65.0,77.0,85.0,102.0,109.0,111.0,119.0,128.0,139.0,143.0,145.0,150.0,176.0,179.0})
             Predict: 0.0
            Else (feature 1 not in {21.0,59.0,65.0,77.0,85.0,102.0,109.0,111.0,119.0,128.0,139.0,143.0,145.0,150.0,176.0,179.0})
             If (feature 8 <= 4.0)
              Predict: 0.0
             Else (feature 8 > 4.0)
              If (feature 6 <= 5.0)
               If (feature 9 <= 5.788342475891113)
                Predict: 2.0
               Else (feature 9 > 5.788342475891113)
                Predict: 0.0
              Else (feature 6 > 5.0)
               Predict: 0.0
          Else (feature 7 > 2.0)
           If (feature 6 <= 5.0)
            Predict: 2.0
           Else (feature 6 > 5.0)
            If (feature 9 <= 5.7749810218811035)
             Predict: 0.0
            Else (feature 9 > 5.7749810218811035)
             If (feature 9 <= 5.798941135406494)
              Predict: 2.0
             Else (feature 9 > 5.798941135406494)
              Predict: 0.0
         Else (feature 8 > 18.0)
          If (feature 9 <= 5.788342475891113)
           Predict: 0.0
          Else (feature 9 > 5.788342475891113)
           If (feature 9 <= 5.798941135406494)
            Predict: 1.0
           Else (feature 9 > 5.798941135406494)
            If (feature 7 <= 0.0)
             If (feature 9 <= 5.823627471923828)
              If (feature 9 <= 5.8111371994018555)
               Predict: 0.0
              Else (feature 9 > 5.8111371994018555)
               Predict: 1.0
             Else (feature 9 > 5.823627471923828)
              Predict: 0.0
            Else (feature 7 > 0.0)
             Predict: 0.0
       Else (feature 6 > 24.0)
        If (feature 1 in {77.0,128.0,139.0,145.0,150.0,154.0,162.0,176.0,179.0,109.0,143.0,21.0,59.0,119.0,85.0,107.0})
         If (feature 9 <= 2.702702760696411)
          If (feature 1 in {77.0,107.0,109.0,128.0,139.0,143.0,145.0,150.0,21.0,85.0})
           If (feature 9 <= 2.654867172241211)
            If (feature 7 <= 6.0)
             If (feature 6 <= 40.0)
              If (feature 8 <= 36.0)
               If (feature 7 <= 1.0)
                If (feature 8 <= 30.0)
                 Predict: 0.0
                Else (feature 8 > 30.0)
                 Predict: 0.0
               Else (feature 7 > 1.0)
                Predict: 0.0
              Else (feature 8 > 36.0)
               If (feature 6 <= 37.0)
                If (feature 1 in {21.0})
                 Predict: 1.0
                Else (feature 1 not in {21.0})
                 Predict: 0.0
               Else (feature 6 > 37.0)
                If (feature 9 <= 1.1173183917999268)
                 Predict: 0.0
                Else (feature 9 > 1.1173183917999268)
                 Predict: 0.0
             Else (feature 6 > 40.0)
              Predict: 0.0
            Else (feature 7 > 6.0)
             If (feature 9 <= 1.5659955739974976)
              If (feature 7 <= 16.0)
               If (feature 6 <= 84.0)
                Predict: 2.0
               Else (feature 6 > 84.0)
                If (feature 1 in {21.0})
                 Predict: 1.0
                Else (feature 1 not in {21.0})
                 Predict: 0.0
              Else (feature 7 > 16.0)
               Predict: 0.0
             Else (feature 9 > 1.5659955739974976)
              If (feature 2 in {28.0})
               Predict: 2.0
              Else (feature 2 not in {28.0})
               If (feature 6 <= 66.0)
                If (feature 7 <= 18.0)
                 Predict: 0.0
                Else (feature 7 > 18.0)
                 Predict: 1.0
               Else (feature 6 > 66.0)
                Predict: 0.0
           Else (feature 9 > 2.654867172241211)
            If (feature 7 <= 2.0)
             If (feature 8 <= 28.0)
              If (feature 1 in {21.0})
               Predict: 1.0
              Else (feature 1 not in {21.0})
               Predict: 0.0
             Else (feature 8 > 28.0)
              Predict: 2.0
            Else (feature 7 > 2.0)
             Predict: 0.0
          Else (feature 1 not in {77.0,107.0,109.0,128.0,139.0,143.0,145.0,150.0,21.0,85.0})
           If (feature 7 <= 7.0)
            Predict: 0.0
           Else (feature 7 > 7.0)
            If (feature 6 <= 251.0)
             Predict: 2.0
            Else (feature 6 > 251.0)
             Predict: 0.0
         Else (feature 9 > 2.702702760696411)
          If (feature 7 <= 6.0)
           If (feature 1 in {77.0,109.0,119.0,128.0,139.0,145.0,150.0,154.0,162.0,176.0,59.0,21.0})
            If (feature 9 <= 4.5315728187561035)
             If (feature 8 <= 33.0)
              If (feature 7 <= 1.0)
               If (feature 9 <= 3.409090995788574)
                If (feature 9 <= 3.3562705516815186)
                 Predict: 0.0
                Else (feature 9 > 3.3562705516815186)
                 Predict: 2.0
               Else (feature 9 > 3.409090995788574)
                Predict: 0.0
              Else (feature 7 > 1.0)
               Predict: 0.0
             Else (feature 8 > 33.0)
              If (feature 6 <= 38.0)
               If (feature 7 <= 3.0)
                If (feature 9 <= 3.986711025238037)
                 Predict: 0.0
                Else (feature 9 > 3.986711025238037)
                 Predict: 0.0
               Else (feature 7 > 3.0)
                If (feature 9 <= 3.096774101257324)
                 Predict: 0.0
                Else (feature 9 > 3.096774101257324)
                 Predict: 0.0
              Else (feature 6 > 38.0)
               If (feature 9 <= 3.8460476398468018)
                If (feature 9 <= 3.797468423843384)
                 Predict: 0.0
                Else (feature 9 > 3.797468423843384)
                 Predict: 0.0
               Else (feature 9 > 3.8460476398468018)
                Predict: 0.0
            Else (feature 9 > 4.5315728187561035)
             If (feature 9 <= 4.545389652252197)
              Predict: 2.0
             Else (feature 9 > 4.545389652252197)
              If (feature 9 <= 4.8132781982421875)
               If (feature 9 <= 4.7769012451171875)
                If (feature 6 <= 30.0)
                 Predict: 0.0
                Else (feature 6 > 30.0)
                 Predict: 0.0
               Else (feature 9 > 4.7769012451171875)
                If (feature 7 <= 4.0)
                 Predict: 0.0
                Else (feature 7 > 4.0)
                 Predict: 1.0
              Else (feature 9 > 4.8132781982421875)
               If (feature 6 <= 28.0)
                If (feature 7 <= 4.0)
                 Predict: 0.0
                Else (feature 7 > 4.0)
                 Predict: 2.0
               Else (feature 6 > 28.0)
                If (feature 9 <= 5.204626560211182)
                 Predict: 0.0
                Else (feature 9 > 5.204626560211182)
                 Predict: 0.0
           Else (feature 1 not in {77.0,109.0,119.0,128.0,139.0,145.0,150.0,154.0,162.0,176.0,59.0,21.0})
            If (feature 9 <= 2.798912286758423)
             If (feature 1 in {85.0})
              Predict: 0.0
             Else (feature 1 not in {85.0})
              Predict: 1.0
            Else (feature 9 > 2.798912286758423)
             If (feature 9 <= 5.3691277503967285)
              If (feature 8 <= 38.0)
               Predict: 0.0
              Else (feature 8 > 38.0)
               If (feature 7 <= 4.0)
                If (feature 6 <= 53.0)
                 Predict: 0.0
                Else (feature 6 > 53.0)
                 Predict: 2.0
               Else (feature 7 > 4.0)
                Predict: 0.0
             Else (feature 9 > 5.3691277503967285)
              If (feature 1 in {107.0})
               Predict: 2.0
              Else (feature 1 not in {107.0})
               If (feature 9 <= 5.533279895782471)
                Predict: 1.0
               Else (feature 9 > 5.533279895782471)
                Predict: 0.0
          Else (feature 7 > 6.0)
           If (feature 1 in {59.0,77.0,85.0,107.0,119.0,128.0,139.0,143.0,145.0,150.0,154.0,162.0,179.0})
            Predict: 0.0
           Else (feature 1 not in {59.0,77.0,85.0,107.0,119.0,128.0,139.0,143.0,145.0,150.0,154.0,162.0,179.0})
            If (feature 9 <= 3.7837212085723877)
             If (feature 8 <= 174.0)
              Predict: 0.0
             Else (feature 8 > 174.0)
              If (feature 6 <= 178.0)
               Predict: 1.0
              Else (feature 6 > 178.0)
               Predict: 0.0
            Else (feature 9 > 3.7837212085723877)
             If (feature 9 <= 3.797468423843384)
              Predict: 2.0
             Else (feature 9 > 3.797468423843384)
              If (feature 9 <= 3.8135592937469482)
               If (feature 6 <= 44.0)
                Predict: 2.0
               Else (feature 6 > 44.0)
                Predict: 0.0
              Else (feature 9 > 3.8135592937469482)
               If (feature 9 <= 4.838595867156982)
                If (feature 9 <= 4.825538158416748)
                 Predict: 0.0
                Else (feature 9 > 4.825538158416748)
                 Predict: 0.0
               Else (feature 9 > 4.838595867156982)
                If (feature 7 <= 11.0)
                 Predict: 0.0
                Else (feature 7 > 11.0)
                 Predict: 0.0
        Else (feature 1 not in {77.0,128.0,139.0,145.0,150.0,154.0,162.0,176.0,179.0,109.0,143.0,21.0,59.0,119.0,85.0,107.0})
         If (feature 9 <= 5.8111371994018555)
          If (feature 9 <= 3.4629361629486084)
           If (feature 7 <= 74.0)
            If (feature 9 <= 0.5970149040222168)
             If (feature 1 in {102.0})
              Predict: 1.0
             Else (feature 1 not in {102.0})
              Predict: 0.0
            Else (feature 9 > 0.5970149040222168)
             If (feature 9 <= 2.0833332538604736)
              If (feature 9 <= 2.0134453773498535)
               If (feature 6 <= 100.0)
                If (feature 7 <= 2.0)
                 Predict: 0.0
                Else (feature 7 > 2.0)
                 Predict: 0.0
               Else (feature 6 > 100.0)
                If (feature 6 <= 150.0)
                 Predict: 2.0
                Else (feature 6 > 150.0)
                 Predict: 0.0
              Else (feature 9 > 2.0134453773498535)
               Predict: 2.0
             Else (feature 9 > 2.0833332538604736)
              Predict: 0.0
           Else (feature 7 > 74.0)
            Predict: 2.0
          Else (feature 9 > 3.4629361629486084)
           If (feature 9 <= 3.479278087615967)
            Predict: 2.0
           Else (feature 9 > 3.479278087615967)
            If (feature 1 in {65.0,102.0})
             If (feature 9 <= 3.4946236610412598)
              If (feature 6 <= 25.0)
               Predict: 1.0
              Else (feature 6 > 25.0)
               Predict: 0.0
             Else (feature 9 > 3.4946236610412598)
              If (feature 7 <= 0.0)
               If (feature 9 <= 4.238615989685059)
                Predict: 0.0
               Else (feature 9 > 4.238615989685059)
                If (feature 6 <= 30.0)
                 Predict: 0.0
                Else (feature 6 > 30.0)
                 Predict: 2.0
              Else (feature 7 > 0.0)
               If (feature 9 <= 4.0159759521484375)
                Predict: 0.0
               Else (feature 9 > 4.0159759521484375)
                If (feature 9 <= 4.085422515869141)
                 Predict: 1.0
                Else (feature 9 > 4.085422515869141)
                 Predict: 0.0
            Else (feature 1 not in {65.0,102.0})
             If (feature 6 <= 40.0)
              If (feature 9 <= 4.7515482902526855)
               Predict: 0.0
              Else (feature 9 > 4.7515482902526855)
               Predict: 2.0
             Else (feature 6 > 40.0)
              If (feature 6 <= 70.0)
               Predict: 1.0
              Else (feature 6 > 70.0)
               If (feature 6 <= 86.0)
                If (feature 6 <= 78.0)
                 Predict: 0.0
                Else (feature 6 > 78.0)
                 Predict: 1.0
               Else (feature 6 > 86.0)
                Predict: 0.0
         Else (feature 9 > 5.8111371994018555)
          Predict: 2.0
    Else (feature 9 > 5.835933685302734)
     If (feature 1 in {182.0,195.0,199.0,205.0,207.0,208.0,215.0,220.0,223.0,224.0,225.0,231.0,235.0,236.0,237.0,143.0,154.0,150.0,128.0,179.0,162.0,109.0,102.0,119.0,160.0,45.0,107.0,149.0,59.0,181.0,145.0,62.0,85.0,77.0})
      If (feature 8 <= 3.0)
       If (feature 6 <= 20.0)
        If (feature 1 in {143.0,160.0,182.0,195.0,199.0,205.0,207.0,208.0,215.0,224.0,235.0,149.0,150.0,154.0,77.0,109.0,128.0,119.0,59.0,102.0,45.0,179.0,145.0,85.0})
         If (feature 8 <= 1.0)
          If (feature 9 <= 7.029478549957275)
           If (feature 1 in {85.0,109.0,128.0,143.0,149.0,150.0,160.0,179.0,182.0,195.0,199.0,59.0,77.0,45.0,102.0})
            If (feature 1 in {85.0,109.0,128.0,143.0,149.0,150.0,160.0,179.0,182.0,195.0,199.0,59.0,77.0})
             If (feature 9 <= 5.873714923858643)
              If (feature 0 in {0.0})
               Predict: 0.0
              Else (feature 0 not in {0.0})
               If (feature 9 <= 5.8479533195495605)
                Predict: 0.0
               Else (feature 9 > 5.8479533195495605)
                Predict: 2.0
             Else (feature 9 > 5.873714923858643)
              If (feature 6 <= 4.0)
               If (feature 1 in {77.0,85.0,109.0,128.0,143.0,149.0,150.0,160.0,179.0,182.0,195.0,199.0})
                Predict: 0.0
               Else (feature 1 not in {77.0,85.0,109.0,128.0,143.0,149.0,150.0,160.0,179.0,182.0,195.0,199.0})
                If (feature 9 <= 6.233421802520752)
                 Predict: 0.0
                Else (feature 9 > 6.233421802520752)
                 Predict: 0.0
              Else (feature 6 > 4.0)
               If (feature 1 in {59.0,85.0,128.0,150.0,160.0,179.0})
                Predict: 0.0
               Else (feature 1 not in {59.0,85.0,128.0,150.0,160.0,179.0})
                If (feature 0 in {0.0})
                 Predict: 2.0
                Else (feature 0 not in {0.0})
                 Predict: 0.0
            Else (feature 1 not in {85.0,109.0,128.0,143.0,149.0,150.0,160.0,179.0,182.0,195.0,199.0,59.0,77.0})
             If (feature 9 <= 6.4776716232299805)
              If (feature 9 <= 6.011560916900635)
               If (feature 9 <= 5.986279487609863)
                Predict: 0.0
               Else (feature 9 > 5.986279487609863)
                Predict: 1.0
              Else (feature 9 > 6.011560916900635)
               Predict: 0.0
             Else (feature 9 > 6.4776716232299805)
              If (feature 9 <= 6.756756782531738)
               If (feature 9 <= 6.698343276977539)
                If (feature 9 <= 6.491885185241699)
                 Predict: 0.0
                Else (feature 9 > 6.491885185241699)
                 Predict: 0.0
               Else (feature 9 > 6.698343276977539)
                If (feature 9 <= 6.7278008460998535)
                 Predict: 0.0
                Else (feature 9 > 6.7278008460998535)
                 Predict: 1.0
              Else (feature 9 > 6.756756782531738)
               Predict: 0.0
           Else (feature 1 not in {85.0,109.0,128.0,143.0,149.0,150.0,160.0,179.0,182.0,195.0,199.0,59.0,77.0,45.0,102.0})
            If (feature 9 <= 6.5789475440979)
             If (feature 9 <= 6.506584167480469)
              If (feature 1 in {119.0,145.0})
               Predict: 0.0
              Else (feature 1 not in {119.0,145.0})
               If (feature 9 <= 5.999687194824219)
                Predict: 0.0
               Else (feature 9 > 5.999687194824219)
                If (feature 9 <= 6.024096488952637)
                 Predict: 2.0
                Else (feature 9 > 6.024096488952637)
                 Predict: 0.0
             Else (feature 9 > 6.506584167480469)
              Predict: 1.0
            Else (feature 9 > 6.5789475440979)
             Predict: 0.0
          Else (feature 9 > 7.029478549957275)
           If (feature 9 <= 7.09330940246582)
            If (feature 1 in {45.0,150.0,160.0})
             Predict: 0.0
            Else (feature 1 not in {45.0,150.0,160.0})
             If (feature 0 in {0.0})
              Predict: 2.0
             Else (feature 0 not in {0.0})
              If (feature 6 <= 1.0)
               Predict: 0.0
              Else (feature 6 > 1.0)
               Predict: 2.0
           Else (feature 9 > 7.09330940246582)
            If (feature 1 in {102.0,109.0,143.0,149.0,150.0,154.0,160.0,179.0,195.0,207.0,215.0,77.0,59.0})
             If (feature 1 in {102.0,109.0,143.0,149.0,150.0,154.0,160.0,179.0,195.0,207.0,215.0,77.0})
              If (feature 9 <= 7.4424896240234375)
               If (feature 9 <= 7.406611919403076)
                Predict: 0.0
               Else (feature 9 > 7.406611919403076)
                Predict: 1.0
              Else (feature 9 > 7.4424896240234375)
               Predict: 0.0
             Else (feature 1 not in {102.0,109.0,143.0,149.0,150.0,154.0,160.0,179.0,195.0,207.0,215.0,77.0})
              If (feature 9 <= 7.979797840118408)
               If (feature 9 <= 7.197943210601807)
                If (feature 9 <= 7.180722713470459)
                 Predict: 0.0
                Else (feature 9 > 7.180722713470459)
                 Predict: 2.0
               Else (feature 9 > 7.197943210601807)
                Predict: 0.0
              Else (feature 9 > 7.979797840118408)
               If (feature 9 <= 8.030802726745605)
                Predict: 2.0
               Else (feature 9 > 8.030802726745605)
                If (feature 9 <= 8.845052719116211)
                 Predict: 0.0
                Else (feature 9 > 8.845052719116211)
                 Predict: 0.0
            Else (feature 1 not in {102.0,109.0,143.0,149.0,150.0,154.0,160.0,179.0,195.0,207.0,215.0,77.0,59.0})
             If (feature 6 <= 1.0)
              If (feature 9 <= 7.197943210601807)
               If (feature 3 in {1.0,7.0,13.0})
                Predict: 0.0
               Else (feature 3 not in {1.0,7.0,13.0})
                Predict: 2.0
              Else (feature 9 > 7.197943210601807)
               If (feature 0 in {0.0})
                If (feature 9 <= 8.605040550231934)
                 Predict: 0.0
                Else (feature 9 > 8.605040550231934)
                 Predict: 2.0
               Else (feature 0 not in {0.0})
                Predict: 0.0
             Else (feature 6 > 1.0)
              If (feature 1 in {85.0})
               Predict: 2.0
              Else (feature 1 not in {85.0})
               If (feature 0 in {0.0})
                If (feature 1 in {45.0})
                 Predict: 0.0
                Else (feature 1 not in {45.0})
                 Predict: 1.0
               Else (feature 0 not in {0.0})
                If (feature 9 <= 8.169602394104004)
                 Predict: 0.0
                Else (feature 9 > 8.169602394104004)
                 Predict: 0.0
         Else (feature 8 > 1.0)
          If (feature 1 in {119.0,143.0,154.0,160.0,199.0,205.0,207.0,208.0,224.0,235.0,77.0,145.0,149.0,109.0})
           If (feature 9 <= 7.684265613555908)
            If (feature 9 <= 7.660455703735352)
             If (feature 9 <= 7.540733814239502)
              If (feature 1 in {119.0,143.0,149.0,154.0,160.0,205.0,207.0,208.0,224.0})
               Predict: 0.0
              Else (feature 1 not in {119.0,143.0,149.0,154.0,160.0,205.0,207.0,208.0,224.0})
               If (feature 9 <= 6.153846263885498)
                Predict: 0.0
               Else (feature 9 > 6.153846263885498)
                If (feature 9 <= 6.179827690124512)
                 Predict: 0.0
                Else (feature 9 > 6.179827690124512)
                 Predict: 0.0
             Else (feature 9 > 7.540733814239502)
              If (feature 3 in {5.0})
               Predict: 1.0
              Else (feature 3 not in {5.0})
               Predict: 0.0
            Else (feature 9 > 7.660455703735352)
             If (feature 1 in {109.0})
              Predict: 1.0
             Else (feature 1 not in {109.0})
              Predict: 2.0
           Else (feature 9 > 7.684265613555908)
            Predict: 0.0
          Else (feature 1 not in {119.0,143.0,154.0,160.0,199.0,205.0,207.0,208.0,224.0,235.0,77.0,145.0,149.0,109.0})
           If (feature 9 <= 8.087291717529297)
            If (feature 9 <= 7.979797840118408)
             If (feature 1 in {128.0,59.0,45.0,150.0,85.0})
              If (feature 6 <= 18.0)
               If (feature 9 <= 5.974026203155518)
                If (feature 1 in {59.0,128.0})
                 Predict: 0.0
                Else (feature 1 not in {59.0,128.0})
                 Predict: 0.0
               Else (feature 9 > 5.974026203155518)
                If (feature 9 <= 6.060606002807617)
                 Predict: 0.0
                Else (feature 9 > 6.060606002807617)
                 Predict: 0.0
              Else (feature 6 > 18.0)
               If (feature 9 <= 7.792022705078125)
                Predict: 0.0
               Else (feature 9 > 7.792022705078125)
                Predict: 2.0
             Else (feature 1 not in {128.0,59.0,45.0,150.0,85.0})
              If (feature 9 <= 7.425067901611328)
               If (feature 9 <= 5.986279487609863)
